digraph Tree {
0 [label="X[0] <= 19.0000\ngini = 0.498104294482\nsamples = 5132", shape="box"] ;
1 [label="X[0] <= 10.9769\ngini = 0.489164172417\nsamples = 4198", shape="box"] ;
0 -> 1 ;
2 [label="X[1] <= 10.9993\ngini = 0.463284511209\nsamples = 2812", shape="box"] ;
1 -> 2 ;
3 [label="X[1] <= 5.0001\ngini = 0.37124675125\nsamples = 1275", shape="box"] ;
2 -> 3 ;
4 [label="gini = 0.0000\nsamples = 158\nvalue = [   0.  158.]", shape="box"] ;
3 -> 4 ;
5 [label="X[1] <= 5.9987\ngini = 0.240309884915\nsamples = 1117", shape="box"] ;
3 -> 5 ;
6 [label="gini = 0.4402\nsamples = 477\nvalue = [ 321.  156.]", shape="box"] ;
5 -> 6 ;
7 [label="gini = 0.0000\nsamples = 640\nvalue = [ 640.    0.]", shape="box"] ;
5 -> 7 ;
8 [label="X[0] <= 10.5011\ngini = 0.0798114096485\nsamples = 1537", shape="box"] ;
2 -> 8 ;
9 [label="gini = 0.0000\nsamples = 1253\nvalue = [    0.  1253.]", shape="box"] ;
8 -> 9 ;
10 [label="X[1] <= 14.4984\ngini = 0.349137075977\nsamples = 284", shape="box"] ;
8 -> 10 ;
11 [label="gini = 0.0000\nsamples = 220\nvalue = [   0.  220.]", shape="box"] ;
10 -> 11 ;
12 [label="gini = 0.0000\nsamples = 64\nvalue = [ 64.   0.]", shape="box"] ;
10 -> 12 ;
13 [label="X[0] <= 10.9967\ngini = 0.00431963418976\nsamples = 1386", shape="box"] ;
1 -> 13 ;
14 [label="X[1] <= 10.9969\ngini = 0.32\nsamples = 15", shape="box"] ;
13 -> 14 ;
15 [label="gini = 0.0000\nsamples = 10\nvalue = [ 10.   0.]", shape="box"] ;
14 -> 15 ;
16 [label="X[1] <= 14.2511\ngini = 0.48\nsamples = 5", shape="box"] ;
14 -> 16 ;
17 [label="gini = 0.0000\nsamples = 3\nvalue = [ 0.  3.]", shape="box"] ;
16 -> 17 ;
18 [label="gini = 0.0000\nsamples = 2\nvalue = [ 2.  0.]", shape="box"] ;
16 -> 18 ;
19 [label="gini = 0.0000\nsamples = 1371\nvalue = [ 1371.     0.]", shape="box"] ;
13 -> 19 ;
20 [label="gini = 0.0000\nsamples = 934\nvalue = [   0.  934.]", shape="box"] ;
0 -> 20 ;
}